/*!
 * The following copyright notice may not be removed under any circumstances.
 * 
 * Copyright:
 * Copyright (c) The Font Bureau, Inc, 2000. All rights reserved.
 */
Cufon.registerFont({"w":570,"face":{"font-family":"interstate","font-weight":400,"font-stretch":"normal","units-per-em":"1000","panose-1":"2 0 5 3 0 0 0 0 0 0","ascent":"800","descent":"-200","x-height":"11","bbox":"-29 -800 929 193","underline-thickness":"20","underline-position":"-133","stemh":"96","stemv":"67","unicode-range":"U+0020-U+007E"},"glyphs":{" ":{"w":270},"!":{"d":"202,-389r-20,187r-66,0r-20,-187r0,-311r106,0r0,311xm224,-64v0,41,-34,75,-75,75v-41,0,-75,-34,-75,-75v0,-41,34,-76,75,-76v41,0,75,35,75,76","w":298},"\"":{"d":"418,-700r-25,327r-75,0r-25,-327r125,0xm197,-700r-25,327r-75,0r-25,-327r125,0","w":490},"#":{"d":"650,-160r-120,0r0,160r-98,0r0,-160r-164,0r0,160r-98,0r0,-160r-120,0r0,-95r120,0r0,-190r-120,0r0,-95r120,0r0,-160r98,0r0,160r164,0r0,-160r98,0r0,160r120,0r0,95r-120,0r0,190r120,0r0,95xm432,-255r0,-190r-164,0r0,190r164,0","w":700},"$":{"d":"554,-206v0,115,-66,187,-198,204r0,102r-105,0r0,-102v-83,-11,-159,-52,-205,-111r80,-68v51,55,111,81,177,81v100,0,144,-33,144,-95v0,-55,-39,-79,-156,-114v-149,-44,-219,-81,-219,-202v0,-104,77,-170,179,-186r0,-103r105,0r0,103v70,11,127,43,176,92r-73,74v-49,-43,-92,-69,-164,-69v-81,0,-116,33,-116,80v0,48,28,70,151,107v141,43,224,80,224,207","w":616},"%":{"d":"395,-494v0,127,-72,218,-174,218v-102,0,-171,-89,-171,-216v0,-129,69,-219,173,-219v106,0,172,90,172,217xm754,-700r-429,700r-101,0r429,-700r101,0xm929,-207v0,127,-72,218,-174,218v-102,0,-171,-89,-171,-216v0,-129,69,-219,173,-219v106,0,172,90,172,217xm305,-492v0,-80,-30,-132,-83,-132v-53,0,-82,50,-82,130v0,80,30,132,83,132v53,0,82,-57,82,-130xm839,-205v0,-80,-30,-132,-83,-132v-53,0,-82,50,-82,130v0,80,30,132,83,132v53,0,82,-57,82,-130","w":979},"&":{"d":"650,0r-120,0r-55,-65v-52,46,-118,76,-197,76v-149,0,-220,-77,-220,-190v0,-95,50,-152,147,-207v-44,-51,-79,-109,-79,-164v0,-101,75,-161,194,-161v65,0,127,23,188,66r-49,84v-54,-39,-94,-53,-148,-53v-100,2,-95,83,-44,146r205,251v21,-36,37,-77,48,-116r95,27v-15,57,-40,117,-76,169xm413,-139r-148,-176v-66,37,-102,74,-102,131v0,56,38,99,119,99v52,0,96,-21,131,-54","w":680},"'":{"d":"200,-700r-25,327r-81,0r-25,-327r131,0","w":269},"(":{"d":"305,65r-52,45v-100,-95,-195,-229,-195,-410v0,-187,93,-319,195,-416r52,45v-89,99,-138,214,-138,366v0,164,53,274,138,370","w":353},")":{"d":"295,-307v0,187,-93,319,-195,416r-52,-45v89,-99,138,-214,138,-366v0,-164,-53,-274,-138,-370r52,-45v100,95,195,229,195,410","w":353},"*":{"d":"448,-436r-45,76r-124,-89r16,153r-88,0r15,-154r-125,90r-45,-76r140,-63r-139,-63r45,-76r124,91r-15,-153r88,0r-16,151r123,-89r45,76r-142,63","w":500},"+":{"d":"538,-294r-190,0r0,195r-103,0r0,-195r-190,0r0,-100r190,0r0,-195r103,0r0,195r190,0r0,100","w":593},",":{"d":"201,-139r-75,265r-71,0r15,-265r131,0","w":254},"-":{"d":"305,-315r-250,0r0,-102r250,0r0,102","w":360},".":{"d":"206,-68v0,43,-36,79,-79,79v-43,0,-79,-36,-79,-79v0,-43,36,-80,79,-80v43,0,79,37,79,80","w":254},"\/":{"d":"430,-790r-311,880r-103,0r311,-880r103,0","w":446},"0":{"d":"607,-351v0,212,-96,362,-277,362v-181,0,-275,-148,-275,-360v0,-212,96,-362,277,-362v181,0,275,148,275,360xm501,-349v0,-147,-48,-260,-171,-260v-122,0,-169,111,-169,258v0,147,49,260,171,260v123,0,169,-111,169,-258","w":662},"1":{"d":"248,0r-105,0r0,-536r-124,0r0,-73v72,-5,131,-29,144,-91r85,0r0,700","w":342},"2":{"d":"550,0r-502,0v7,-205,131,-296,269,-378v95,-56,119,-87,119,-136v0,-56,-38,-92,-134,-92v-59,0,-124,27,-169,70r-67,-80v63,-59,152,-95,239,-95v145,0,238,62,238,191v0,108,-53,154,-176,227v-134,79,-172,124,-188,191r371,0r0,102","w":633},"3":{"d":"541,-208v0,143,-98,219,-262,219v-99,0,-203,-44,-252,-116r80,-68v43,54,109,80,172,80v112,0,153,-43,153,-115v0,-95,-89,-112,-192,-105r0,-102r64,0v65,0,99,-43,99,-96v0,-40,-29,-96,-132,-96v-55,0,-99,24,-138,65r-78,-74v59,-61,130,-95,218,-95v132,0,239,68,239,190v0,84,-37,126,-85,153v66,19,114,73,114,160","w":612},"4":{"d":"615,-157r-93,0r0,157r-102,0r0,-154r-379,0r0,-100r361,-446r120,0r0,450r93,0r0,93xm423,-582r-198,255v-21,27,-51,62,-66,78r261,-1","w":667},"5":{"d":"574,-238v0,275,-336,303,-520,180r51,-87v59,33,133,54,196,54v109,0,166,-53,166,-142v0,-83,-55,-125,-142,-125v-59,0,-99,17,-135,44r-112,-44r24,-342r430,0r0,100r-336,0r-14,177v39,-22,88,-36,151,-36v160,0,241,94,241,221","w":636},"6":{"d":"592,-222v0,153,-120,233,-274,233v-147,0,-263,-81,-263,-279v0,-183,102,-433,434,-443r0,99v-161,7,-271,81,-316,227v49,-39,99,-56,184,-56v127,0,235,70,235,219xm486,-220v0,-84,-59,-122,-159,-122v-102,0,-165,41,-165,123v0,68,55,128,160,128v106,0,164,-50,164,-129","w":636},"7":{"d":"513,-594v-119,133,-228,334,-233,594r-106,0v4,-241,86,-429,217,-598r-367,0r0,-102r489,0r0,106","w":594},"8":{"d":"610,-204v0,138,-108,215,-277,215v-169,0,-273,-77,-273,-215v0,-84,43,-144,124,-174v-72,-30,-94,-93,-94,-135v0,-135,109,-198,246,-198v125,0,244,61,244,196v0,41,-22,108,-94,137v75,28,124,84,124,174xm474,-512v0,-53,-38,-103,-140,-103v-102,0,-138,46,-138,99v0,56,53,96,140,96v90,0,138,-41,138,-92xm504,-201v0,-74,-53,-120,-170,-120v-112,0,-168,44,-168,115v0,74,61,121,169,121v112,0,169,-48,169,-116","w":670},"9":{"d":"581,-432v0,183,-102,433,-434,443r0,-99v161,-7,271,-81,316,-227v-49,39,-99,56,-184,56v-127,0,-235,-70,-235,-219v0,-153,120,-233,274,-233v147,0,263,81,263,279xm474,-481v0,-68,-55,-128,-160,-128v-106,0,-164,50,-164,129v0,84,59,122,159,122v102,0,165,-41,165,-123","w":636},":":{"d":"206,-456v0,43,-36,79,-79,79v-43,0,-79,-36,-79,-79v0,-43,36,-80,79,-80v43,0,79,37,79,80xm206,-68v0,43,-36,79,-79,79v-43,0,-79,-36,-79,-79v0,-43,36,-80,79,-80v43,0,79,37,79,80","w":254},";":{"d":"206,-456v0,43,-36,79,-79,79v-43,0,-79,-36,-79,-79v0,-43,36,-80,79,-80v43,0,79,37,79,80xm194,-139r-75,265r-71,0r15,-265r131,0","w":254},"<":{"d":"348,-47r-291,-253r0,-88r291,-253r0,130r-194,166r194,167r0,131","w":414},"=":{"d":"513,-409r-433,0r0,-100r433,0r0,100xm513,-179r-433,0r0,-100r433,0r0,100","w":593},">":{"d":"357,-300r-291,253r0,-130r194,-166r-194,-167r0,-131r291,253r0,88","w":414},"?":{"d":"517,-525v0,97,-45,140,-129,187v-65,36,-75,60,-75,136r-109,0v0,-117,21,-157,132,-218v51,-28,74,-51,74,-99v0,-56,-49,-88,-135,-88v-74,0,-124,30,-174,78r-67,-79v57,-57,140,-103,244,-103v142,0,239,64,239,186xm333,-64v0,41,-34,75,-75,75v-41,0,-75,-34,-75,-75v0,-41,34,-76,75,-76v41,0,75,35,75,76","w":571},"@":{"d":"779,-360v0,151,-64,206,-152,206v-52,0,-89,-26,-107,-62v-24,32,-80,62,-128,62v-77,0,-152,-44,-152,-137v0,-124,171,-155,260,-101v6,-76,-8,-112,-93,-110v-37,0,-68,6,-97,24r-28,-49v93,-60,285,-45,285,86r0,168v0,36,19,60,66,60v62,0,88,-52,88,-148v0,-159,-129,-293,-303,-293v-175,0,-303,129,-303,303v0,220,220,370,433,275r24,53v-253,112,-515,-65,-515,-327v0,-209,152,-361,361,-361v213,0,361,161,361,351xm500,-270r0,-61v-39,-39,-195,-49,-195,38v0,48,34,79,97,79v37,0,80,-23,98,-56","w":836},"A":{"d":"665,0r-112,0r-59,-166r-280,0r-58,166r-109,0r252,-700r111,0xm462,-260r-109,-322v-24,87,-74,229,-107,322r216,0","w":712},"B":{"d":"609,-215v0,142,-87,215,-240,215r-278,0r0,-700r288,0v122,0,201,64,201,182v0,71,-38,115,-89,140v55,15,118,66,118,163xm475,-512v0,-52,-27,-92,-97,-92r-188,0r0,181r188,0v69,0,97,-43,97,-89xm504,-212v0,-72,-45,-116,-124,-116r-190,0r0,232r187,0v93,0,127,-47,127,-116","w":675},"C":{"d":"595,-123v-50,86,-135,134,-241,134v-181,0,-296,-149,-296,-361v0,-212,115,-361,296,-361v114,0,190,46,238,131r-93,58v-36,-57,-73,-84,-145,-84v-122,0,-188,99,-188,256v0,157,66,256,188,256v73,0,118,-30,154,-87","w":655},"D":{"d":"623,-350v0,247,-158,350,-341,350r-191,0r0,-700r191,0v188,0,341,103,341,350xm516,-350v0,-147,-68,-248,-234,-248r-86,0r0,496r86,0v166,0,234,-101,234,-248","w":679},"E":{"d":"557,0r-466,0r0,-700r451,0r0,102r-346,0r0,173r201,0r0,102r-201,0r0,221r361,0r0,102","w":615},"F":{"d":"542,-597r-346,0r0,183r201,0r0,103r-201,0r0,311r-105,0r0,-700r451,0r0,103","w":582},"G":{"d":"620,-274v0,180,-110,285,-266,285v-181,0,-296,-149,-296,-361v0,-212,115,-361,296,-361v114,0,190,46,238,131r-92,57v-36,-57,-74,-83,-146,-83v-122,0,-189,99,-189,256v0,157,67,256,189,256v115,-1,160,-75,159,-160r-114,0r0,-101r221,0r0,81","w":678},"H":{"d":"623,0r-105,0r0,-312r-322,0r0,312r-105,0r0,-700r105,0r0,283r322,0r0,-283r105,0r0,700","w":714},"I":{"d":"201,0r-105,0r0,-700r105,0r0,700","w":297},"J":{"d":"517,-276v0,188,-80,287,-249,287v-131,0,-209,-69,-244,-186r102,-30v27,72,69,111,145,111v101,0,141,-57,141,-190r0,-416r105,0r0,424","w":603},"K":{"d":"643,0r-119,0r-201,-359r-130,157r0,202r-102,0r0,-700r102,0r-2,364v12,-18,58,-76,81,-105r207,-259r119,0r-205,254","w":685},"L":{"d":"545,0r-454,0r0,-700r105,0r0,597r349,0r0,103","w":595},"M":{"d":"717,0r-103,0r2,-493r-215,504r-213,-504r2,493r-99,0r0,-700r108,0r157,373v17,40,39,91,48,120v10,-29,30,-79,47,-120r154,-373r112,0r0,700","w":808},"N":{"d":"623,0r-100,0r-279,-439v-17,-26,-41,-68,-52,-86r1,525r-102,0r0,-700r107,0r266,427v18,29,48,81,58,99r-1,-526r102,0r0,700","w":714},"O":{"d":"654,-351v0,218,-122,362,-300,362v-177,0,-297,-142,-297,-360v0,-218,122,-362,299,-362v178,0,298,142,298,360xm547,-349v0,-159,-82,-258,-194,-258v-111,0,-189,97,-189,256v0,159,81,258,193,258v111,0,190,-97,190,-256","w":711},"P":{"d":"609,-481v0,144,-96,220,-232,220r-183,0r0,261r-103,0r0,-700r293,0v129,0,225,74,225,219xm502,-481v0,-77,-47,-120,-120,-120r-188,0r0,241r188,0v80,0,120,-46,120,-121","w":653},"Q":{"d":"651,-350v0,123,-41,224,-108,287r47,73r-86,54r-47,-72v-229,76,-399,-92,-399,-342v0,-212,115,-361,296,-361v182,0,297,149,297,361xm544,-350v0,-157,-67,-256,-190,-256v-122,0,-189,99,-189,256v0,175,81,282,236,253r-51,-79r86,-54r51,80v40,-44,57,-113,57,-200","w":709},"R":{"d":"623,-491v0,112,-59,181,-154,205r143,286r-121,0r-139,-277r-158,0r0,277r-103,0r0,-700r307,0v122,0,225,65,225,209xm517,-488v0,-73,-48,-113,-119,-113r-204,0r0,225r204,0v70,0,119,-36,119,-112","w":694},"S":{"d":"560,-201v0,126,-80,212,-259,212v-102,0,-190,-44,-249,-113r75,-73v47,51,116,83,182,83v98,0,145,-34,145,-102v0,-54,-41,-81,-158,-116v-148,-44,-219,-81,-219,-206v0,-121,102,-195,231,-195v95,0,167,35,229,95r-74,75v-44,-45,-94,-67,-163,-67v-82,0,-117,40,-117,87v0,49,32,73,153,109v138,42,224,86,224,211","w":626},"T":{"d":"560,-597r-204,0r0,597r-105,0r0,-597r-204,0r0,-103r513,0r0,103","w":607},"U":{"d":"618,-292v0,196,-95,303,-269,303v-173,0,-263,-112,-263,-305r0,-406r105,0r0,403v0,132,55,203,160,203v110,0,162,-68,162,-196r0,-410r105,0r0,408","w":704},"V":{"d":"641,-700r-240,700r-111,0r-243,-700r114,0r146,446v13,41,33,103,39,128v6,-25,26,-88,39,-129r144,-445r112,0","w":688},"W":{"d":"813,-700r-143,700r-106,0r-109,-452v-6,-24,-17,-76,-20,-93v-3,17,-14,69,-20,93r-114,452r-104,0r-143,-700r106,0r100,534v4,-23,14,-70,19,-91r112,-443r90,0r114,453v5,19,13,56,17,81r99,-534r102,0","w":863},"X":{"d":"614,0r-125,0r-79,-136v-25,-43,-64,-116,-77,-142v-36,74,-109,197,-155,278r-123,0r217,-361r-203,-339r125,0r141,256v13,-26,51,-98,77,-143r65,-113r123,0r-203,338","w":659},"Y":{"d":"648,-700r-251,423r0,277r-105,0r0,-277r-251,-423r123,0r109,193v24,43,60,113,72,139v46,-97,126,-233,182,-332r121,0","w":689},"Z":{"d":"592,0r-532,0r0,-102r342,-413v22,-27,61,-72,79,-90r-401,2r0,-97r512,0r0,102r-338,413v-22,27,-61,72,-79,90r417,-2r0,97","w":664},"[":{"d":"317,110r-222,0r0,-810r222,0r0,85r-123,0r0,640r123,0r0,85","w":380},"\\":{"d":"430,90r-103,0r-311,-880r103,0","w":446},"]":{"d":"285,110r-222,0r0,-85r123,0r0,-640r-123,0r0,-85r222,0r0,810","w":380},"^":{"d":"531,-382r-115,0r-128,-209r-128,209r-113,0r202,-318r80,0","w":578},"_":{"d":"500,177r-500,0r0,-95r500,0r0,95","w":500},"`":{"d":"347,-595r-82,0r-165,-160r140,0","w":500},"a":{"d":"478,0r-101,0r0,-52v-99,105,-326,86,-326,-114v0,-117,90,-170,209,-170v49,0,88,7,117,20v7,-81,-19,-128,-99,-128v-54,0,-96,10,-137,33r-40,-78v50,-31,106,-47,180,-47v117,0,197,57,197,176r0,360xm377,-149r0,-75v-28,-14,-64,-23,-120,-23v-66,0,-108,30,-108,78v0,52,33,87,101,87v55,0,103,-34,127,-67","w":550},"b":{"d":"517,-254v0,180,-98,265,-207,265v-53,0,-103,-28,-132,-60r0,49r-102,0r0,-676r102,-53r0,254v38,-35,82,-61,137,-61v113,0,202,82,202,282xm414,-251v0,-132,-42,-190,-118,-190v-49,0,-92,33,-119,67r0,221v23,31,71,69,123,69v74,0,114,-56,114,-167"},"c":{"d":"467,-447r-61,73v-43,-44,-81,-64,-128,-64v-75,0,-123,67,-123,174v0,103,44,177,126,177v49,0,78,-22,119,-65r66,65v-41,52,-93,98,-188,98v-128,0,-227,-108,-227,-272v0,-174,102,-275,230,-275v77,0,137,31,186,89","w":522},"d":{"d":"494,0r-102,0r0,-50v-38,35,-82,61,-137,61v-113,0,-202,-82,-202,-282v0,-180,98,-265,207,-265v53,0,103,28,132,60r0,-200r102,-53r0,729xm393,-151r0,-221v-23,-31,-71,-69,-123,-69v-74,0,-114,56,-114,167v0,132,42,190,118,190v49,0,92,-33,119,-67"},"e":{"d":"281,-536v164,0,236,144,218,310r-347,0v15,158,150,176,246,102r61,66v-46,44,-101,69,-181,69v-123,0,-227,-99,-227,-273v0,-178,94,-274,230,-274xm398,-311v-5,-72,-39,-132,-124,-132v-69,0,-111,48,-120,132r244,0","w":554},"f":{"d":"322,-626v-50,-14,-111,-24,-108,41r0,60r97,0r0,96r-97,0r0,429r-103,0r0,-429r-68,0r0,-96r68,0r0,-69v-2,-128,107,-148,211,-122r0,90","w":362},"g":{"d":"494,-50v0,160,-58,237,-248,243r-35,-78v152,-7,181,-49,180,-165v-38,35,-81,61,-136,61v-112,0,-202,-82,-202,-282v0,-180,99,-265,207,-265v53,0,103,28,131,60r0,-49r103,0r0,475xm393,-151r0,-221v-23,-31,-71,-69,-123,-69v-74,0,-114,56,-114,167v0,132,42,190,118,190v49,0,92,-33,119,-67"},"h":{"d":"498,0r-103,0r0,-297v0,-106,-40,-144,-108,-144v-69,0,-108,49,-108,134r0,307r-103,0r0,-675r103,-54r0,254v26,-38,78,-61,132,-61v122,0,187,80,187,235r0,301"},"i":{"d":"199,-659v0,36,-30,66,-66,66v-37,0,-67,-30,-67,-66v0,-37,30,-67,67,-67v36,0,66,30,66,67xm184,0r-103,0r0,-525r103,0r0,525","w":265},"j":{"d":"199,-659v0,36,-30,66,-66,66v-37,0,-67,-30,-67,-66v0,-37,30,-67,67,-67v36,0,66,30,66,67xm184,-24v0,132,-33,187,-178,217r-35,-78v96,-27,110,-47,110,-137r0,-503r103,0r0,501","w":265},"k":{"d":"487,0r-112,0r-116,-261r-80,106r0,155r-103,0r0,-675r103,-54r-1,443r58,-86r109,-153r117,0r-133,176","w":529},"l":{"d":"184,0r-103,0r0,-675r103,-54r0,729","w":265},"m":{"d":"789,0r-103,0r0,-297v0,-106,-33,-144,-101,-144v-69,0,-101,49,-101,134r0,307r-103,0r0,-297v0,-106,-33,-144,-101,-144v-69,0,-101,49,-101,134r0,307r-103,0r0,-525r103,0r0,50v26,-38,71,-61,125,-61v71,0,116,27,144,77v38,-47,79,-77,161,-77v122,0,180,80,180,235r0,301","w":861},"n":{"d":"498,0r-103,0r0,-297v0,-106,-40,-144,-108,-144v-69,0,-108,49,-108,134r0,307r-103,0r0,-525r103,0r0,50v26,-38,78,-61,132,-61v122,0,187,80,187,235r0,301"},"o":{"d":"519,-265v0,174,-102,276,-237,276v-132,0,-231,-109,-231,-273v0,-172,102,-274,234,-274v134,0,234,107,234,271xm415,-262v0,-107,-51,-176,-134,-176v-78,0,-126,69,-126,173v0,115,53,178,131,178v78,0,129,-79,129,-175"},"p":{"d":"517,-254v0,180,-98,265,-207,265v-53,0,-103,-28,-132,-60r0,189r-102,53r0,-718r102,0r0,50v38,-35,82,-61,137,-61v113,0,202,82,202,282xm414,-251v0,-132,-42,-190,-118,-190v-49,0,-92,33,-119,67r0,221v23,31,71,69,123,69v74,0,114,-56,114,-167"},"q":{"d":"494,140r-102,53r0,-243v-38,35,-82,61,-137,61v-113,0,-202,-82,-202,-282v0,-180,98,-265,207,-265v53,0,103,28,132,60r0,-49r102,0r0,665xm393,-151r0,-221v-23,-31,-71,-69,-123,-69v-74,0,-114,56,-114,167v0,132,42,190,118,190v49,0,92,-33,119,-67"},"r":{"d":"388,-514r-27,98v-22,-12,-45,-19,-79,-19v-65,0,-103,46,-103,135r0,300r-103,0r0,-525r103,0r0,50v24,-35,68,-61,120,-61v42,0,68,8,89,22","w":418},"s":{"d":"443,-144v0,202,-285,179,-398,88r47,-78v49,34,104,52,153,52v65,0,96,-21,96,-58v0,-40,-46,-59,-122,-88v-113,-44,-154,-82,-154,-165v0,-94,74,-143,179,-143v66,0,131,24,178,58r-45,79v-43,-30,-86,-45,-136,-45v-50,0,-72,20,-72,48v0,26,18,45,97,76v117,45,177,77,177,176","w":499},"t":{"d":"339,-104r-12,91v-25,14,-60,24,-101,24v-73,0,-118,-45,-118,-139r0,-303r-75,0r0,-94r75,0r0,-150r101,-54r0,204r130,0r0,94r-130,0r0,285v-8,89,87,65,130,42","w":403},"u":{"d":"494,0r-103,0r0,-50v-26,38,-78,61,-132,61v-122,0,-187,-80,-187,-235r0,-301r103,0r0,297v0,106,40,144,108,144v69,0,108,-49,108,-134r0,-307r103,0r0,525"},"v":{"d":"509,-525r-185,525r-103,0r-188,-525r108,0r94,285v17,51,32,100,39,129v31,-127,87,-286,126,-414r109,0","w":542},"w":{"d":"701,-525r-146,525r-88,0r-71,-265v-11,-40,-22,-87,-27,-112v-5,25,-16,73,-27,113r-70,264r-88,0r-144,-525r102,0r88,370r99,-370r83,0r71,256v11,41,22,88,28,114r88,-370r102,0","w":741},"x":{"d":"491,0r-122,0r-105,-197v-24,50,-76,141,-108,197r-116,0r165,-272r-154,-253r119,0r96,179r96,-179r118,0r-155,253","w":531},"y":{"d":"523,-525r-264,710r-109,0r76,-195r-193,-515r113,0r86,257v16,46,40,124,46,153v9,-31,31,-106,47,-151r89,-259r109,0","w":556},"z":{"d":"463,0r-405,0r0,-84r288,-351r-268,0r0,-90r385,0r0,83r-283,352r283,0r0,90","w":527},"{":{"d":"372,110v-188,1,-240,-95,-231,-275v4,-81,-18,-90,-80,-87r0,-89v62,3,84,-6,80,-87v-9,-180,42,-278,231,-277r0,76v-116,11,-127,67,-127,177v0,94,-19,135,-76,156v70,16,76,98,76,202v0,79,30,117,127,127r0,77","w":425},"|":{"d":"195,185r-95,0r0,-985r95,0r0,985","w":295},"}":{"d":"364,-254v-62,-3,-84,6,-80,87v9,180,-42,278,-231,277r0,-76v116,-11,127,-67,127,-177v0,-94,19,-135,76,-156v-70,-16,-76,-98,-76,-202v0,-79,-30,-117,-127,-127r0,-77v188,-1,240,95,231,275v-4,81,18,90,80,87r0,89","w":425},"~":{"d":"195,-459v64,0,137,74,178,74v32,0,47,-18,75,-76r72,37v-36,92,-79,141,-153,141v-64,0,-139,-74,-179,-74v-32,0,-46,18,-74,76r-72,-37v36,-92,79,-141,153,-141","w":562},"\u00a0":{"w":270}}});
